{
  "inputs": [
    {
      "name": "trk_pt",
      "offset": 0,
      "scale": 1
    },
    {
      "name": "trk_eta",
      "offset": 0,
      "scale": 1
    },
    {
      "name": "trk_lambda",
      "offset": 0,
      "scale": 1
    },
    {
      "name": "trk_dxy",
      "offset": 0,
      "scale": 1
    },
    {
      "name": "trk_dz",
      "offset": 0,
      "scale": 1
    },
    {
      "name": "trk_dxyClosestPV",
      "offset": 0,
      "scale": 1
    },
    {
      "name": "trk_dzClosestPV",
      "offset": 0,
      "scale": 1
    },
    {
      "name": "trk_ptErr",
      "offset": 0,
      "scale": 1
    },
    {
      "name": "trk_etaErr",
      "offset": 0,
      "scale": 1
    },
    {
      "name": "trk_lambdaErr",
      "offset": 0,
      "scale": 1
    },
    {
      "name": "trk_dxyErr",
      "offset": 0,
      "scale": 1
    },
    {
      "name": "trk_dzErr",
      "offset": 0,
      "scale": 1
    },
    {
      "name": "trk_nChi2",
      "offset": 0,
      "scale": 1
    },
    {
      "name": "trk_ndof",
      "offset": 0,
      "scale": 1
    },
    {
      "name": "trk_nInvalid",
      "offset": 0,
      "scale": 1
    },
    {
      "name": "trk_nPixel",
      "offset": 0,
      "scale": 1
    },
    {
      "name": "trk_nStrip",
      "offset": 0,
      "scale": 1
    },
    {
      "name": "trk_nPixelLay",
      "offset": 0,
      "scale": 1
    },
    {
      "name": "trk_nStripLay",
      "offset": 0,
      "scale": 1
    },
    {
      "name": "trk_n3DLay",
      "offset": 0,
      "scale": 1
    },
    {
      "name": "trk_nLostLay",
      "offset": 0,
      "scale": 1
    },
    {
      "name": "trk_algo",
      "offset": 0,
      "scale": 1
    }
  ],
  "layers": [
    {
      "activation": "rectified",
      "architecture": "dense",
      "bias": [
        0.7213016748428345,
        1.2998545169830322,
        0.00040321447886526585,
        -1.1111394166946411,
        -1.838065266609192,
        0.4436987638473511,
        -1.0578629970550537,
        -0.19808577001094818,
        -0.62632155418396,
        0.735460102558136,
        0.7714956402778625,
        -1.0049868822097778,
        1.3188092708587646,
        -0.02583138458430767,
        -0.5881463289260864,
        0.3794848620891571,
        0.10067585110664368,
        0.49162885546684265,
        -1.0973559617996216,
        0.4671630859375,
        -1.1740432977676392,
        -1.3184185028076172,
        0.4703833758831024,
        0.5624169707298279,
        -0.5966112613677979,
        0.16961143910884857,
        0.4250554144382477,
        -0.03984557464718819,
        0.583153486251831,
        -0.6321424841880798,
        -0.40771281719207764,
        -2.18562912940979,
        -0.26869142055511475,
        0.6380429267883301,
        -2.2142653465270996,
        1.2601845264434814,
        1.0941739082336426,
        0.3952952027320862,
        0.24199943244457245,
        -1.2700583934783936,
        0.4222579896450043,
        1.0168012380599976,
        -1.0293147563934326,
        -0.7383456230163574,
        -0.027920735999941826,
        -1.183661937713623,
        2.0367770195007324,
        1.4699108600616455,
        -0.1685822308063507,
        1.0785619020462036,
        1.1130238771438599,
        -0.8267746567726135,
        -0.5838565230369568,
        -4.276581287384033,
        -0.6194570064544678,
        -0.7640664577484131,
        -0.807457685470581,
        0.18671956658363342,
        -1.2138298749923706,
        -0.7285289764404297,
        0.5676859021186829,
        -1.4684630632400513,
        1.015826940536499,
        -1.2803539037704468,
        1.072069525718689,
        0.00404602475464344,
        0.7631873488426208,
        -0.5292769074440002,
        1.4903050661087036,
        -1.4697681665420532,
        2.035541534423828,
        0.5810607671737671,
        -0.6250212788581848,
        -0.3028022050857544,
        -0.3963331878185272,
        -0.020118052139878273,
        0.0776369646191597,
        -2.095088005065918,
        0.09188250452280045,
        -0.014845591969788074,
        -0.12309102714061737,
        -1.0635690689086914,
        0.08154796063899994,
        -0.20359861850738525,
        -0.8461002111434937,
        1.7693477869033813,
        -2.295485734939575,
        0.3928465247154236,
        1.8546957969665527,
        -0.6229798197746277,
        0.4739982485771179,
        -0.4935041666030884,
        -0.5093938112258911,
        0.2706662714481354,
        0.9037163853645325,
        -0.2877005934715271,
        -1.5583465099334717,
        0.1799493134021759,
        0.26972657442092896,
        0.6625766754150391,
        -0.9152604341506958,
        -2.3379268646240234,
        0.7906516790390015,
        0.09913844615221024,
        -1.638301134109497,
        -2.522948980331421,
        -0.4102041721343994,
        -0.39248111844062805,
        -0.530794084072113,
        -4.768941879272461,
        0.535731852054596,
        0.8851960301399231,
        2.1387057304382324,
        -0.4302835166454315,
        0.053363826125860214,
        -0.09508915990591049,
        -0.15983863174915314,
        2.266888380050659,
        -1.5973252058029175,
        1.0201553106307983,
        0.10176700353622437,
        0.2908649444580078,
        -0.9818903803825378,
        -0.955999493598938,
        1.411801815032959,
        -1.5980638265609741,
        0.3027328848838806,
        -1.2075670957565308,
        0.1937030851840973,
        0.32625600695610046,
        0.2804475426673889,
        -0.8685449361801147,
        1.6624637842178345,
        0.7563374638557434,
        -0.9562057256698608,
        1.6122663021087646,
        0.52049320936203,
        -0.7091279625892639,
        -2.286127805709839,
        -0.010753125883638859,
        0.43468958139419556,
        0.5577764511108398,
        -0.423160195350647,
        -0.2196267694234848,
        0.3410075306892395,
        -1.049506664276123,
        0.3139294981956482,
        -0.8007692694664001,
        -1.926816701889038,
        -1.013633370399475,
        -0.3307095766067505,
        0.2536770701408386,
        0.19253268837928772,
        -0.5535204410552979,
        0.1334511786699295,
        -0.9698732495307922,
        -1.3471250534057617,
        -0.9039743542671204,
        -1.2336225509643555,
        -1.6743801832199097,
        -0.4066064953804016,
        -0.39956533908843994,
        0.2796787917613983,
        1.4551310539245605,
        0.6098309755325317,
        0.2857976257801056,
        -0.013463426381349564,
        -1.2101026773452759,
        -0.9910657405853271,
        -0.6868765950202942,
        0.18857701122760773,
        -0.2889823019504547,
        2.0110607147216797,
        1.3085434436798096,
        1.252160906791687,
        -0.7790810465812683,
        0.17024455964565277,
        -0.8512167930603027,
        0.1867293119430542,
        0.7221809029579163,
        1.7442412376403809,
        1.219467043876648,
        -1.356024146080017,
        0.7536652088165283,
        1.2217026948928833,
        -2.8578014373779297,
        -1.098897933959961,
        0.7599000930786133,
        -0.33829161524772644,
        -0.5676648020744324,
        -0.12975019216537476,
        0.5598263144493103,
        0.42301082611083984,
        0.2763339579105377,
        0.0729975774884224,
        -0.5063469409942627,
        0.25827905535697937,
        0.0695212334394455,
        0.6092442870140076,
        0.5843139290809631,
        0.7942970395088196,
        1.2909590005874634,
        0.47908225655555725,
        0.1556377112865448,
        -0.05578477680683136,
        1.6065847873687744,
        -0.8987581133842468,
        1.6786913871765137,
        -1.100807785987854,
        0.1470506340265274,
        0.528912365436554,
        0.1811443716287613,
        -0.9096952080726624,
        -1.9280160665512085,
        -0.35977691411972046,
        0.23818333446979523,
        0.8641867637634277,
        -0.03827745467424393,
        -0.14539454877376556,
        0.40855297446250916,
        0.8689551949501038,
        -0.46023881435394287,
        0.031809285283088684,
        2.164803981781006,
        -0.17785443365573883,
        -2.5350441932678223,
        0.665250837802887,
        -0.2195970118045807,
        0.11307742446660995,
        0.032959215342998505,
        -0.6653826236724854,
        -1.828477382659912,
        -2.4905917644500732,
        -0.031551945954561234,
        -0.31424421072006226,
        -1.6697062253952026,
        0.26806047558784485,
        -1.2482198476791382,
        -0.6980882883071899,
        0.3227020800113678,
        -0.6040700674057007,
        0.10975582152605057,
        -0.7241904139518738,
        0.2736676335334778,
        -0.3504839837551117,
        1.5460152626037598,
        0.15231648087501526,
        -0.6529784798622131,
        -0.13274361193180084,
        0.2815464437007904,
        -0.6499634981155396,
        0.43248897790908813,
        1.7671669721603394,
        -0.34836891293525696,
        -1.4485172033309937,
        -0.7435932159423828,
        0.03565581515431404,
        0.4227350652217865,
        0.060647908598184586,
        -0.014904802665114403,
        0.45705392956733704,
        -0.9938017725944519,
        0.6532081961631775,
        -0.4208294749259949,
        -0.248256653547287,
        -0.3135676383972168,
        0.5923983454704285,
        0.10978525876998901,
        -1.1662888526916504,
        -0.7010101675987244,
        0.4338192343711853,
        0.2932542562484741,
        1.0030627250671387,
        -0.0661819726228714,
        1.5595920085906982,
        0.1564616858959198,
        0.4140440821647644,
        9.101898467633873e-05,
        0.374251127243042,
        1.3900691270828247,
        -3.7627170085906982,
        -0.7186123132705688,
        0.39364033937454224,
        -1.3368223905563354,
        0.5252192616462708,
        -0.06778416782617569,
        0.9182336330413818,
        0.22469010949134827,
        0.03378800302743912,
        0.3099888563156128,
        0.35279783606529236,
        -0.6454983353614807,
        0.33979183435440063,
        0.4835081696510315,
        -0.028467277064919472,
        1.3415991067886353,
        0.029919736087322235,
        0.4729978144168854,
        -0.4589059054851532,
        -2.2479729652404785
      ],
      "weights": [
        0.07172006368637085,
        0.03119370900094509,
        -0.2965475022792816,
        0.3310627341270447,
        -0.04880138859152794,
        0.2590670585632324,
        -0.0267119612544775,
        -0.22805991768836975,
        6.4666643142700195,
        6.773643493652344,
        -5.834253311157227,
        -3.41399884223938,
        0.0010272935032844543,
        -0.23665659129619598,
        0.8240506649017334,
        0.17594926059246063,
        -0.24177274107933044,
        -0.016843803226947784,
        -0.10529425740242004,
        0.45749592781066895,
        0.9185927510261536,
        -0.15726865828037262,
        -4.193502426147461,
        0.07550334930419922,
        -0.1643560379743576,
        0.0019878135062754154,
        0.0007725860923528671,
        0.012331279926002026,
        -0.0002846941351890564,
        -7.462520599365234,
        5.959622859954834,
        11.035608291625977,
        0.6040865182876587,
        -0.1448294222354889,
        -0.02890395186841488,
        -0.10606027394533157,
        -0.3039877116680145,
        0.06778553128242493,
        0.21461868286132812,
        0.1677200049161911,
        0.13555195927619934,
        -0.16435308754444122,
        0.25629913806915283,
        0.00595398573204875,
        -0.27963918447494507,
        1.599582552909851,
        0.49745139479637146,
        -0.12000862509012222,
        -0.0010666267480701208,
        0.025284023955464363,
        0.03808148205280304,
        0.14398671686649323,
        0.01129936333745718,
        -3.624399185180664,
        -0.23210260272026062,
        0.5068648457527161,
        -0.23281769454479218,
        -0.24217157065868378,
        0.47610950469970703,
        0.03829788789153099,
        -0.36976873874664307,
        -0.16983629763126373,
        -0.26009202003479004,
        0.051303114742040634,
        1.164881944656372,
        -0.012977213598787785,
        0.07341278344392776,
        0.18800702691078186,
        -0.2230648696422577,
        -0.0556793138384819,
        -0.024995971471071243,
        -0.020113056525588036,
        0.1124635711312294,
        0.16269172728061676,
        -7.6838908195495605,
        -8.946925163269043,
        2.3559372425079346,
        0.6877357363700867,
        -0.032856956124305725,
        0.09322810918092728,
        0.38360854983329773,
        0.1806866079568863,
        0.1862381249666214,
        0.2115374356508255,
        -0.04594307020306587,
        -0.013990223407745361,
        0.2500881254673004,
        0.01594316028058529,
        0.04278220236301422,
        -0.3740546405315399,
        0.2966558337211609,
        0.03418217599391937,
        0.024007858708500862,
        0.005627397447824478,
        -0.09738660603761673,
        -4.434696197509766,
        -8.147262573242188,
        -8.820674896240234,
        0.39412420988082886,
        -0.07039245963096619,
        0.004656309727579355,
        0.08540348708629608,
        -0.0368485152721405,
        -0.32184088230133057,
        -0.005830173846334219,
        -0.2466094046831131,
        -0.011766231618821621,
        -0.3040500283241272,
        0.006023821420967579,
        0.25359046459198,
        0.205997496843338,
        0.25289809703826904,
        0.2849087417125702,
        -0.23633398115634918,
        0.017734916880726814,
        -0.2716423273086548,
        0.04699723795056343,
        -0.5008233189582825,
        3.817587375640869,
        1.1777030229568481,
        -11.216168403625488,
        -3.0836341381073,
        -0.06632906198501587,
        -0.5932155251502991,
        -0.10958246886730194,
        0.15680864453315735,
        -1.1125541925430298,
        0.14946497976779938,
        -0.716094970703125,
        0.1376485675573349,
        -0.3009015619754791,
        0.034097716212272644,
        -0.19338487088680267,
        -0.004510315600782633,
        -0.0044510243460536,
        0.12489697337150574,
        -0.017269035801291466,
        0.05046346038579941,
        0.004850238095968962,
        -0.10635936260223389,
        -3.3752171993255615,
        -1.8351554870605469,
        1.560268521308899,
        0.9773529171943665,
        0.07046757638454437,
        0.09548504650592804,
        1.3984076976776123,
        -0.026963723823428154,
        -0.1661871075630188,
        0.2943373918533325,
        -1.0126761198043823,
        0.1219855546951294,
        1.479676604270935,
        0.001901271054521203,
        0.23802538216114044,
        -0.21330998837947845,
        -0.11518299579620361,
        0.18210452795028687,
        0.025541657581925392,
        0.12599703669548035,
        0.26824137568473816,
        0.08920120447874069,
        -3.9265401363372803,
        0.39777320623397827,
        1.9025284051895142,
        -1.5613212585449219,
        0.31961020827293396,
        -0.8190352320671082,
        -4.5648932456970215,
        -0.04664357006549835,
        -0.5991482734680176,
        -0.01137951947748661,
        -0.7228167653083801,
        -0.04757794365286827,
        -4.070727348327637,
        0.023553699254989624,
        -0.02537662163376808,
        2.4456424713134766,
        0.7144245505332947,
        0.05653078854084015,
        0.0838153213262558,
        -0.043019864708185196,
        -0.029522953554987907,
        -0.03741506487131119,
        -1.548780918121338,
        -3.27142071723938,
        -1.0621343851089478,
        0.31639236211776733,
        0.005137725733220577,
        -0.09263914078474045,
        -0.9861785769462585,
        -0.5271903872489929,
        0.0015780609101057053,
        -0.5639890432357788,
        -0.055295903235673904,
        -0.33443447947502136,
        -2.59793758392334,
        -0.1020784005522728,
        -0.03911789506673813,
        0.6293916702270508,
        1.4417219161987305,
        -0.02652304247021675,
        0.023733021691441536,
        0.020109621807932854,
        -0.058740533888339996,
        0.03125987574458122,
        1.488289475440979,
        0.40245530009269714,
        0.993005633354187,
        -0.4738055169582367,
        0.04413662105798721,
        -0.8557528853416443,
        0.18555289506912231,
        -0.07975388318300247,
        -0.660067081451416,
        0.21382541954517365,
        0.4532870054244995,
        -0.0773673951625824,
        0.21631385385990143,
        -0.0037434687837958336,
        -0.6309413313865662,
        0.08647463470697403,
        -0.35079166293144226,
        0.0640132874250412,
        -0.04355800151824951,
        -0.16223488748073578,
        0.04475704953074455,
        -1.1628153324127197,
        1.4548755884170532,
        -0.162216454744339,
        -2.5725905895233154,
        0.39549148082733154,
        -2.1168689727783203,
        -0.07046958804130554,
        0.6532511115074158,
        -0.35028529167175293,
        -0.14370322227478027,
        -0.23730550706386566,
        0.572303295135498,
        -0.2269953340291977,
        -0.591583788394928,
        0.20677900314331055,
        0.06406859308481216,
        0.11844806373119354,
        -0.18430066108703613,
        -0.00780462846159935,
        0.006430154200643301,
        0.014789761044085026,
        -0.039683934301137924,
        -1.5731502771377563,
        -6.312926292419434,
        -4.290134906768799,
        0.3785952925682068,
        -0.4202582836151123,
        -0.8788352012634277,
        -0.051905613392591476,
        1.1170579195022583,
        -0.5762966871261597,
        0.18447236716747284,
        -0.7741075754165649,
        -0.046102575957775116,
        -0.5971522331237793,
        1.4230029582977295,
        0.31691333651542664,
        -1.0682469606399536,
        -0.0792597085237503,
        -0.6176803708076477,
        0.015020390041172504,
        -0.2839474081993103,
        0.028753548860549927,
        0.11499686539173126,
        0.6094982028007507,
        6.1440348625183105,
        4.924335479736328,
        0.33905652165412903,
        0.49587851762771606,
        0.06929344683885574,
        0.012878143228590488,
        -2.5080766677856445,
        -1.0269023180007935,
        -0.09401454776525497,
        -0.527725100517273,
        0.13462531566619873,
        0.16782471537590027,
        -1.1165279150009155,
        0.06478800624608994,
        -0.32956448197364807,
        0.40579545497894287,
        0.2248208373785019,
        -0.11372406035661697,
        0.14166420698165894,
        -0.03473111614584923,
        -0.05479402467608452,
        0.01321690995246172,
        -5.199560165405273,
        -3.6119205951690674,
        1.5825856924057007,
        -3.138989210128784,
        -0.043441012501716614,
        -0.6553651690483093,
        -0.16358932852745056,
        0.30445942282676697,
        0.45743048191070557,
        0.10926327109336853,
        0.2629193961620331,
        -0.10015556961297989,
        0.042443227022886276,
        -0.004903704859316349,
        -0.14575141668319702,
        -0.22710348665714264,
        -0.5571642518043518,
        -0.31046628952026367,
        0.09205027669668198,
        -0.2716818153858185,
        -0.12572486698627472,
        -2.6855030059814453,
        -0.9178750514984131,
        0.0101996511220932,
        0.11361473053693771,
        -0.9170857667922974,
        -0.3132823407649994,
        -0.4823787808418274,
        -2.2108075618743896,
        0.28149110078811646,
        0.5018559694290161,
        0.0793650671839714,
        0.4972720444202423,
        0.13838885724544525,
        -0.3942398130893707,
        -0.3881055414676666,
        -0.01664920151233673,
        -0.755974531173706,
        -0.26942580938339233,
        0.43721264600753784,
        -0.26552748680114746,
        0.48224955797195435,
        0.06694422662258148,
        0.0410071425139904,
        2.1249563694000244,
        0.7896784543991089,
        -0.11312167346477509,
        1.0049346685409546,
        -0.009192973375320435,
        -0.7010906338691711,
        1.9025532007217407,
        0.12683139741420746,
        -0.7021389603614807,
        -0.010848105885088444,
        -0.7470545768737793,
        -0.02575012668967247,
        1.7703442573547363,
        -0.24057506024837494,
        -0.0022168883588165045,
        -0.006157351657748222,
        0.007994988933205605,
        -6.3393874168396,
        0.0005559632554650307,
        -3.9254088401794434,
        0.0017241707537323236,
        -0.00735074607655406,
        0.6701784729957581,
        -1.0868151187896729,
        -4.559190273284912,
        -0.2854481339454651,
        -0.006488846614956856,
        0.00802818313241005,
        -0.008011294528841972,
        -0.011119004338979721,
        -0.03667641431093216,
        -0.04835878312587738,
        0.017767954617738724,
        0.030091233551502228,
        -0.003942812327295542,
        0.0006588069954887033,
        -0.03772525489330292,
        -0.04139050468802452,
        0.018394317477941513,
        0.061807721853256226,
        0.008567827753722668,
        0.04960807412862778,
        -0.005562630016356707,
        0.00883161835372448,
        13.324318885803223,
        9.268712997436523,
        -11.89826774597168,
        0.03454408794641495,
        -0.03278600051999092,
        -1.0070589780807495,
        0.3420993983745575,
        0.07642634958028793,
        0.22450046241283417,
        0.04191376641392708,
        0.0735512226819992,
        0.2963193655014038,
        0.046317048370838165,
        0.03377871215343475,
        -0.07153869420289993,
        -1.8558070659637451,
        -0.21664753556251526,
        -0.009731805883347988,
        -0.01375153474509716,
        0.012881780043244362,
        0.024764103814959526,
        0.15004412829875946,
        -3.2596137523651123,
        -8.00404167175293,
        -0.7267543077468872,
        -0.3974802494049072,
        0.004925476852804422,
        0.2876560389995575,
        -0.2812982499599457,
        -0.4786064624786377,
        -0.34028491377830505,
        0.012178488075733185,
        0.24473901093006134,
        -0.360520601272583,
        0.24341383576393127,
        0.00395901408046484,
        -1.0652052164077759,
        -1.1902008056640625,
        -0.9160749316215515,
        0.1873590052127838,
        -0.019975457340478897,
        0.3505748212337494,
        -0.10119495540857315,
        -1.6058777570724487,
        0.15186753869056702,
        -0.7628993988037109,
        0.16496863961219788,
        -2.4667165279388428,
        -0.21282191574573517,
        -0.1758076250553131,
        0.2046324461698532,
        -0.36722898483276367,
        0.4283265173435211,
        -0.4400938153266907,
        0.19342073798179626,
        -0.48635634779930115,
        0.4894718825817108,
        -0.19010888040065765,
        -0.02230822481215,
        1.5511647462844849,
        0.2816128134727478,
        0.051762696355581284,
        0.1437186449766159,
        0.07355404645204544,
        -0.22405143082141876,
        0.14313560724258423,
        -3.9870364665985107,
        -7.168769359588623,
        -0.03475221246480942,
        0.5943576097488403,
        -0.0499916672706604,
        0.12243106216192245,
        0.004117086995393038,
        -0.4782995581626892,
        0.0069401985965669155,
        -0.060246046632528305,
        -0.7328142523765564,
        0.12584656476974487,
        -0.033184632658958435,
        -0.012707948684692383,
        0.07087161391973495,
        0.9259522557258606,
        0.3798060119152069,
        0.10043516010046005,
        -0.1849953830242157,
        0.022574124857783318,
        0.21514758467674255,
        -3.1848678588867188,
        -5.200042247772217,
        -9.53792667388916,
        -0.27675661444664,
        -0.49199390411376953,
        -0.13214264810085297,
        -0.06931445747613907,
        0.6995946168899536,
        -0.15954439342021942,
        0.1011996865272522,
        -0.02407350204885006,
        0.13503094017505646,
        0.10194998234510422,
        0.20578499138355255,
        0.0012247103732079268,
        -0.04639328271150589,
        0.25213390588760376,
        0.4095306098461151,
        0.05334889888763428,
        0.3581302762031555,
        0.06777413934469223,
        -0.3273911476135254,
        -0.020677533000707626,
        1.3866093158721924,
        1.1812448501586914,
        -3.715630292892456,
        -3.6390323638916016,
        0.03210072964429855,
        0.039028849452733994,
        -0.0019174872431904078,
        0.36331719160079956,
        -0.47421640157699585,
        0.005265975836664438,
        0.3851377069950104,
        -0.5702304244041443,
        0.1721734255552292,
        -0.06415285915136337,
        -0.14571282267570496,
        -0.009433634579181671,
        0.008399817161262035,
        0.008065478876233101,
        0.0021251700818538666,
        -0.009327578358352184,
        0.009329138323664665,
        -19.75750160217285,
        2.7480857372283936,
        2.7356326580047607,
        -0.8610501289367676,
        0.08967778086662292,
        0.006741389632225037,
        0.038817115128040314,
        -0.1790114790201187,
        -0.06041931360960007,
        -0.08908209204673767,
        0.09686407446861267,
        0.049940429627895355,
        0.0056384168565273285,
        0.21134278178215027,
        0.0010459684999659657,
        0.009535769000649452,
        0.007635466754436493,
        0.01119893416762352,
        -0.03656870871782303,
        0.0011351408902555704,
        0.036093570291996,
        -0.002804855816066265,
        -0.02535245567560196,
        -5.6189494132995605,
        -4.952890872955322,
        2.310823678970337,
        -0.31776106357574463,
        -0.0027618922758847475,
        -0.1683819741010666,
        -2.339254140853882,
        -0.702538251876831,
        0.2581782937049866,
        -0.7801302075386047,
        -0.13620051741600037,
        -1.216838002204895,
        0.5538688898086548,
        0.40032586455345154,
        0.04445935785770416,
        -0.05604824796319008,
        -0.13728010654449463,
        0.07732368260622025,
        -0.638600766658783,
        0.055300213396549225,
        0.28180164098739624,
        0.20092852413654327,
        2.076967239379883,
        2.5108258724212646,
        -0.09871196746826172,
        -0.275438517332077,
        0.0393521822988987,
        -0.1054883822798729,
        -0.9334671497344971,
        -1.9012733697891235,
        -0.18708057701587677,
        -0.15264631807804108,
        0.5458799004554749,
        -0.34022852778434753,
        -1.7493643760681152,
        -0.17249558866024017,
        -1.1141246557235718,
        -1.018624186515808,
        -0.9895645380020142,
        -0.1025218665599823,
        0.029139112681150436,
        -0.06283406913280487,
        -0.01641649566590786,
        0.06849557161331177,
        3.852518320083618,
        2.427607536315918,
        -4.632449626922607,
        -2.0134475231170654,
        0.07200603932142258,
        0.048238255083560944,
        -0.307486355304718,
        0.13852521777153015,
        -0.3734160363674164,
        -0.13665886223316193,
        0.25678813457489014,
        -0.2405356615781784,
        -0.25183266401290894,
        -0.013159762136638165,
        -1.2033295631408691,
        0.8570168018341064,
        0.030435895547270775,
        0.3016494810581207,
        -0.03380288556218147,
        0.22846588492393494,
        -0.07773682475090027,
        -0.6075255870819092,
        3.765258312225342,
        3.692110538482666,
        0.1391613930463791,
        -0.49796709418296814,
        -1.7699062824249268,
        -2.2149345874786377,
        -1.5887051820755005,
        -3.0447943210601807,
        -0.04695556312799454,
        -2.941054344177246,
        -1.6439396142959595,
        -0.5320081114768982,
        -4.367722511291504,
        -0.16018155217170715,
        0.07516957074403763,
        0.018207253888249397,
        -0.04593922942876816,
        0.09142468869686127,
        0.01698293164372444,
        -0.05655587837100029,
        -0.07405933737754822,
        0.10377988964319229,
        4.437727928161621,
        4.018954753875732,
        -9.202301025390625,
        -6.014345645904541,
        -0.018277764320373535,
        -0.07089906930923462,
        -0.05481559410691261,
        -0.16645057499408722,
        0.34625816345214844,
        0.2669904828071594,
        -0.8123388290405273,
        0.3025643825531006,
        0.09582986682653427,
        -0.0073667727410793304,
        -0.017122039571404457,
        0.013681510463356972,
        -0.030306488275527954,
        0.018594924360513687,
        0.1727418154478073,
        -6.310301250778139e-05,
        -0.46403270959854126,
        -0.2680289149284363,
        -8.22842788696289,
        -6.299499034881592,
        0.7133716940879822,
        -0.04781002923846245,
        -0.009956476278603077,
        -0.018081843852996826,
        -0.004870548378676176,
        0.010465402156114578,
        0.11482128500938416,
        0.14058992266654968,
        -0.11568620800971985,
        -0.004355042241513729,
        -0.15970534086227417,
        0.03009699285030365,
        -1.1921261548995972,
        0.18719199299812317,
        0.0033260721247643232,
        -0.023962393403053284,
        0.05445760115981102,
        0.05518834665417671,
        -0.06851577758789062,
        -0.05617908015847206,
        1.3976259231567383,
        -0.3803970515727997,
        0.10210272669792175,
        1.401157021522522,
        -0.25091248750686646,
        0.23438645899295807,
        1.7184572219848633,
        -1.756395936012268,
        -0.4514670670032501,
        -1.6990300416946411,
        -0.4083532989025116,
        -1.1696027517318726,
        -0.08956927061080933,
        -0.38431745767593384,
        0.066869355738163,
        0.1266234666109085,
        -0.11713755875825882,
        0.04474450647830963,
        0.017766073346138,
        -0.05735790729522705,
        -0.06850574165582657,
        -0.19916151463985443,
        -7.2366838455200195,
        -10.95811939239502,
        0.550032913684845,
        0.9726902842521667,
        0.10055122524499893,
        -0.0994127169251442,
        0.28283336758613586,
        0.017344659194350243,
        0.07418440282344818,
        0.184739351272583,
        0.13962198793888092,
        0.3417414128780365,
        -0.12133747339248657,
        -0.0069610727950930595,
        -1.7548986673355103,
        0.16445602476596832,
        -0.278506875038147,
        0.49479609727859497,
        0.0015266729751601815,
        0.510747492313385,
        0.05274171382188797,
        0.752453088760376,
        1.4825012683868408,
        -0.2644409239292145,
        -0.09391389042139053,
        0.017112111672759056,
        0.08588320761919022,
        -0.04005637392401695,
        0.6534619331359863,
        0.14048606157302856,
        -1.1265835762023926,
        0.12521126866340637,
        -0.1003105416893959,
        -0.21177855134010315,
        0.5363178849220276,
        0.15117275714874268,
        0.11245349794626236,
        0.013869025744497776,
        -0.07788825780153275,
        -0.0022511465940624475,
        0.022299034520983696,
        0.10255521535873413,
        0.022633012384176254,
        -9.317021369934082,
        2.997971534729004,
        2.964503526687622,
        -3.096356153488159,
        -2.572373628616333,
        0.017992334440350533,
        0.09256631135940552,
        0.056358978152275085,
        -0.14482057094573975,
        -0.18026363849639893,
        0.154835507273674,
        -0.06082236021757126,
        0.08031118661165237,
        0.04334583133459091,
        0.007200641557574272,
        -0.4409455955028534,
        0.019388003274798393,
        0.044036224484443665,
        -0.0502198152244091,
        -0.018437620252370834,
        0.04079175367951393,
        -0.010512610897421837,
        -10.764078140258789,
        -12.720925331115723,
        -8.528013229370117,
        0.434355229139328,
        -0.18234117329120636,
        0.13183188438415527,
        -0.005084540229290724,
        -0.08055388182401657,
        0.06692727655172348,
        0.27615612745285034,
        0.16611488163471222,
        0.4889596700668335,
        -0.2692466974258423,
        -0.05807342380285263,
        0.01284199208021164,
        -0.2527330219745636,
        0.8274580836296082,
        0.6089245080947876,
        -0.05354168638586998,
        0.008510378189384937,
        0.018403392285108566,
        0.06894316524267197,
        0.16863690316677094,
        0.7369574308395386,
        -1.412887692451477,
        1.9027410745620728,
        0.6795822978019714,
        0.04476869851350784,
        -0.16476108133792877,
        0.18114754557609558,
        -0.7206487655639648,
        0.11467359215021133,
        -0.5263167023658752,
        0.22722668945789337,
        0.15652024745941162,
        0.5277553200721741,
        -0.029625538736581802,
        -5.274971008300781,
        -0.10320763289928436,
        0.15447041392326355,
        -0.023502105847001076,
        -0.0016712805954739451,
        -0.029606271535158157,
        0.0068786293268203735,
        -1.7383495569229126,
        7.876133441925049,
        13.155848503112793,
        1.0180262327194214,
        0.004695216193795204,
        -0.03592071309685707,
        0.03214356303215027,
        0.25334563851356506,
        -0.13726088404655457,
        0.1699615865945816,
        0.0421820767223835,
        0.17666448652744293,
        -0.14087963104248047,
        -0.2745988368988037,
        0.0048455591313540936,
        0.015041466802358627,
        0.12282708287239075,
        -0.2349725365638733,
        0.00976984016597271,
        0.002250341232866049,
        0.035164304077625275,
        0.014935942366719246,
        -3.9550716876983643,
        -1.1449038982391357,
        -3.1093738079071045,
        -1.2486413717269897,
        0.21886007487773895,
        -0.013261260464787483,
        -0.25462695956230164,
        -1.1856050491333008,
        0.399001806974411,
        -0.364572137594223,
        0.6190696358680725,
        1.1235127449035645,
        -0.6865442991256714,
        0.8087372183799744,
        0.00113663577940315,
        0.08624882996082306,
        0.35273391008377075,
        -0.10021190345287323,
        -0.02296152152121067,
        0.6802321672439575,
        -0.01172705553472042,
        -0.06949681788682938,
        0.012381285429000854,
        2.7155699729919434,
        1.8114550113677979,
        -0.002892687451094389,
        -0.580172598361969,
        0.009466694667935371,
        -0.03155262768268585,
        -0.3876006007194519,
        -0.9585133194923401,
        -0.03606024011969566,
        -0.41658568382263184,
        -0.46789297461509705,
        0.4627571702003479,
        0.2871273159980774,
        -0.014889530837535858,
        0.1451064944267273,
        -0.09675682336091995,
        0.06295094639062881,
        0.07329018414020538,
        -0.008112206123769283,
        -0.07863440364599228,
        0.0066629317589104176,
        -0.3791261613368988,
        2.353516101837158,
        2.9424264430999756,
        -0.15721698105335236,
        0.17193900048732758,
        -0.28195226192474365,
        -0.1842336803674698,
        -3.49192214012146,
        -0.5047092437744141,
        0.6094550490379333,
        -0.6266013979911804,
        0.3430306315422058,
        -2.0395724773406982,
        -2.0321249961853027,
        0.08303219079971313,
        -0.5763841271400452,
        0.790837287902832,
        0.8298584818840027,
        0.2038748860359192,
        0.011646592058241367,
        -0.02910517156124115,
        -0.022762302309274673,
        0.22763781249523163,
        4.463881969451904,
        2.2848446369171143,
        -1.2384347915649414,
        -0.6101278066635132,
        0.0040757013484835625,
        0.34403330087661743,
        -0.057713497430086136,
        -0.4868568480014801,
        -0.7469809055328369,
        -0.3965240716934204,
        0.013014644384384155,
        0.18512442708015442,
        -0.010095362551510334,
        -0.007074155379086733,
        0.011746951378881931,
        -0.30731648206710815,
        -0.7167434692382812,
        0.006584199611097574,
        0.006097856909036636,
        0.01962820068001747,
        0.08472590148448944,
        -0.007770096883177757,
        3.8466150760650635,
        4.226193904876709,
        -3.1569647789001465,
        -0.07887591421604156,
        -0.044252775609493256,
        -0.8850542902946472,
        0.05785888060927391,
        0.2775835394859314,
        -0.4179244339466095,
        0.17652340233325958,
        0.5555272102355957,
        -0.043616436421871185,
        0.32565444707870483,
        -0.0043608397245407104,
        -1.1858460903167725,
        -0.486850380897522,
        0.4777447581291199,
        -0.18781402707099915,
        0.05772724747657776,
        -0.1252640038728714,
        0.34794849157333374,
        -0.8939677476882935,
        -0.7939749360084534,
        -0.22362348437309265,
        -0.5810658931732178,
        -0.9148873686790466,
        -0.1675049364566803,
        -0.26514339447021484,
        -0.18574179708957672,
        -0.24266478419303894,
        0.5683786869049072,
        0.04585527628660202,
        0.1854039430618286,
        0.08766021579504013,
        0.36778101325035095,
        -0.5421735048294067,
        0.06874274462461472,
        1.2707806825637817,
        0.1207275390625,
        0.04687156528234482,
        0.06473956257104874,
        -0.029327210038900375,
        -0.051249098032712936,
        -0.137833371758461,
        -5.294731140136719,
        -9.127608299255371,
        0.7133018374443054,
        -0.5379408001899719,
        -1.02120041847229,
        -0.069860078394413,
        0.25320982933044434,
        0.06361163407564163,
        0.10013478994369507,
        0.11730194836854935,
        0.0795646384358406,
        0.0974540188908577,
        -0.20248562097549438,
        7.401675975415856e-05,
        -0.04863971099257469,
        -0.13663677871227264,
        -0.05128028616309166,
        0.06659968942403793,
        0.12308518588542938,
        0.1525084674358368,
        -0.19515126943588257,
        0.07402413338422775,
        4.134458541870117,
        2.303230047225952,
        -6.546896457672119,
        0.06632362306118011,
        0.033535562455654144,
        0.19924969971179962,
        0.3154419958591461,
        -0.858988344669342,
        -0.22207804024219513,
        -0.134689062833786,
        0.013020251877605915,
        0.3647160232067108,
        -1.0035852193832397,
        -0.02581518515944481,
        -0.03676668182015419,
        -0.11533994972705841,
        0.22511237859725952,
        0.007302105892449617,
        -0.06067663058638573,
        0.017860565334558487,
        0.06755534559488297,
        0.10870514810085297,
        -4.414735794067383,
        -5.387141704559326,
        -0.24005399644374847,
        0.2455735057592392,
        -1.815068006515503,
        0.7677537798881531,
        0.42602840065956116,
        -0.20606118440628052,
        -0.04943201318383217,
        -0.8487660884857178,
        -0.23365026712417603,
        -1.4795295000076294,
        0.0038834153674542904,
        -0.06781065464019775,
        0.051708322018384933,
        -0.15663710236549377,
        0.29089054465293884,
        -0.03953300043940544,
        -0.006075618322938681,
        0.040732480585575104,
        0.008216655813157558,
        0.018209926784038544,
        2.7138595581054688,
        0.7782267928123474,
        1.385442852973938,
        1.5884102582931519,
        -0.020115431398153305,
        -0.19973653554916382,
        0.10067528486251831,
        -0.3356727957725525,
        -0.4519527554512024,
        -0.16838909685611725,
        0.33764171600341797,
        0.21513129770755768,
        1.1874046325683594,
        -0.07178530097007751,
        -0.013921611942350864,
        -0.3107060194015503,
        1.062880039215088,
        -0.03830645605921745,
        0.05475341156125069,
        -0.022613022476434708,
        -0.0650651603937149,
        0.08002899587154388,
        0.487820565700531,
        0.7536042928695679,
        1.0611181259155273,
        0.1911986917257309,
        -0.008359267376363277,
        0.14837145805358887,
        0.22362561523914337,
        -0.4596506357192993,
        -0.4938128888607025,
        -0.21020077168941498,
        0.30384501814842224,
        0.20388071238994598,
        -0.6405364274978638,
        -0.04852781444787979,
        0.0765083059668541,
        0.0993778184056282,
        -0.14495952427387238,
        0.32920217514038086,
        0.0022412764374166727,
        0.25724369287490845,
        0.026324119418859482,
        0.06238811835646629,
        0.955235481262207,
        2.507373571395874,
        -3.299104928970337,
        -6.707162857055664,
        -0.6768850088119507,
        0.23515082895755768,
        -0.002181409392505884,
        0.07676471769809723,
        -0.5418814420700073,
        0.3757134675979614,
        -0.15449190139770508,
        -0.0924026370048523,
        -0.3540034294128418,
        0.014451989904046059,
        -2.7310633659362793,
        0.08273547142744064,
        -0.11884152144193649,
        -0.014081134460866451,
        0.0035344543866813183,
        -0.036519765853881836,
        -0.03007042035460472,
        0.5541127920150757,
        4.708465099334717,
        7.00234317779541,
        0.8196554780006409,
        0.05525282770395279,
        0.0423017293214798,
        -0.2864118218421936,
        -0.3652159869670868,
        0.6263492703437805,
        0.21634341776371002,
        0.07640167325735092,
        0.337669312953949,
        -0.0394766591489315,
        -0.3002977967262268,
        0.0016671479679644108,
        0.1275242567062378,
        0.018786676228046417,
        -0.05587763339281082,
        0.0008492352208122611,
        -0.031612396240234375,
        -0.009755557402968407,
        0.04600759968161583,
        -5.573892116546631,
        4.412539005279541,
        4.674045562744141,
        -6.572906970977783,
        -3.5867903232574463,
        0.0024825078435242176,
        0.1214359849691391,
        -0.46916013956069946,
        -0.0997486263513565,
        0.02212321199476719,
        -0.1420893669128418,
        -0.1736118048429489,
        -0.034483376890420914,
        0.3053973913192749,
        0.0006000728462822735,
        -1.944887638092041,
        0.6892098188400269,
        0.6432428359985352,
        -0.3874422311782837,
        0.013426223769783974,
        -0.359723299741745,
        0.03834797069430351,
        0.006870407611131668,
        4.22821569442749,
        2.883711576461792,
        -0.6582544445991516,
        0.6398780345916748,
        -1.4853276014328003,
        -0.028532439842820168,
        -0.7243138551712036,
        0.14889150857925415,
        0.6713443398475647,
        0.5884071588516235,
        -0.2187214344739914,
        -1.233208179473877,
        0.4354863464832306,
        -0.42232218384742737,
        0.05676443129777908,
        0.004383109975606203,
        0.09416250884532928,
        0.0024203909561038017,
        -0.028209306299686432,
        0.1505589336156845,
        -0.037710342556238174,
        -2.7468204498291016,
        -7.328597545623779,
        -4.585623741149902,
        2.389509916305542,
        0.22123895585536957,
        -0.14602836966514587,
        -0.051034148782491684,
        0.7241200804710388,
        0.29113754630088806,
        0.09546791762113571,
        0.2752782106399536,
        -0.6610599160194397,
        0.14952056109905243,
        0.18840579688549042,
        0.024203384295105934,
        -5.227598190307617,
        -4.268329620361328,
        -5.441019058227539,
        0.06577800214290619,
        -0.24796992540359497,
        0.1990157663822174,
        -0.37111979722976685,
        0.2533300817012787,
        2.4329323768615723,
        1.2575609683990479,
        0.6170111894607544,
        0.6390147805213928,
        0.06571605056524277,
        -0.673152506351471,
        -11.197089195251465,
        -11.443014144897461,
        -1.463416576385498,
        -11.504122734069824,
        -1.6423373222351074,
        -2.853235960006714,
        -10.934592247009277,
        -4.269173622131348,
        -0.0028296129312366247,
        1.7944990396499634,
        1.115006923675537,
        0.004845912102609873,
        -0.055249035358428955,
        0.0019403396872803569,
        0.05592741817235947,
        -3.2639126777648926,
        -3.408432722091675,
        -5.5263237953186035,
        0.04932708293199539,
        -0.004086609929800034,
        0.014920206740498543,
        -0.08918633311986923,
        -0.17649129033088684,
        -0.02771194465458393,
        0.12872214615345,
        0.1353016346693039,
        -0.0039580692537128925,
        -0.06288761645555496,
        -0.14629672467708588,
        -0.0022910041734576225,
        -0.04323679953813553,
        -0.03291434049606323,
        0.11177501827478409,
        -0.004736953414976597,
        0.005699844565242529,
        -0.007257458753883839,
        -0.027558239176869392,
        -0.01967504806816578,
        -5.234390735626221,
        -3.7566070556640625,
        1.415378212928772,
        -0.1533585786819458,
        0.02675745263695717,
        -0.453054279088974,
        -0.19183695316314697,
        0.7109998464584351,
        0.44839444756507874,
        -0.012586364522576332,
        0.0978139117360115,
        0.11137379705905914,
        0.15767669677734375,
        -0.004225703421980143,
        0.03574248030781746,
        0.5553667545318604,
        0.8434081077575684,
        0.036503780633211136,
        -0.35410305857658386,
        0.0031145343091338873,
        0.19687262177467346,
        0.011204443871974945,
        -1.3678537607192993,
        0.7970398664474487,
        -2.437401056289673,
        -1.3359375,
        -0.04790537804365158,
        0.05054578557610512,
        0.9305031895637512,
        -0.9358174204826355,
        0.37209197878837585,
        -0.39411839842796326,
        0.19499999284744263,
        0.04366621375083923,
        -0.6324495673179626,
        -0.4119057357311249,
        -0.0014392922166734934,
        0.020294716581702232,
        -0.01608254574239254,
        0.020293278619647026,
        -0.0035095687489956617,
        -0.06858200579881668,
        -5.2744269371032715,
        -0.003007766092196107,
        0.3171290457248688,
        1.9010026454925537,
        -1.0412976741790771,
        -1.9031283855438232,
        -0.0036350232549011707,
        -0.012723054736852646,
        -0.035877060145139694,
        -0.07291587442159653,
        -0.016270194202661514,
        0.021725432947278023,
        0.022206874564290047,
        -0.006079103332012892,
        0.016306452453136444,
        -0.001854644506238401,
        0.06563019752502441,
        0.07402881979942322,
        0.27557697892189026,
        0.017367256805300713,
        -0.4215490221977234,
        0.03076360747218132,
        0.6045560836791992,
        -0.39989811182022095,
        -1.0752867460250854,
        -1.562565803527832,
        -0.1524084210395813,
        0.23744557797908783,
        -0.11263098567724228,
        -0.026890750974416733,
        0.1972954422235489,
        0.24396340548992157,
        0.14463002979755402,
        -0.3364124000072479,
        -0.374003142118454,
        -0.07853104919195175,
        0.3136499226093292,
        0.06270109117031097,
        -1.4618200063705444,
        0.589707612991333,
        0.2678227126598358,
        0.0015073735266923904,
        -0.018285220488905907,
        -0.004640866070985794,
        -0.0434797964990139,
        -1.4691405296325684,
        -5.890413284301758,
        -5.213529586791992,
        3.414783477783203,
        -0.050524260848760605,
        -0.0023999155964702368,
        -0.0313430093228817,
        0.05920887365937233,
        0.0649992898106575,
        0.38232237100601196,
        0.07878530025482178,
        -0.3034701645374298,
        -0.47345876693725586,
        -0.4575260281562805,
        -0.0007769947987981141,
        -0.1678260862827301,
        -0.049276456236839294,
        0.13188228011131287,
        0.11407168954610825,
        0.020298926159739494,
        -0.12257736176252365,
        0.0651845708489418,
        0.025175094604492188,
        6.35685920715332,
        7.53718900680542,
        -8.722728729248047,
        -7.861051082611084,
        0.037066638469696045,
        0.10067521780729294,
        0.5342229008674622,
        -0.12479045242071152,
        -0.03561602532863617,
        0.288381963968277,
        -0.20324382185935974,
        0.001977723091840744,
        0.01364627294242382,
        0.008716280572116375,
        0.021546367555856705,
        0.23557990789413452,
        -0.3330148756504059,
        0.007885308936238289,
        -0.042067281901836395,
        -0.012083305977284908,
        0.05656164512038231,
        -0.08288241177797318,
        -6.349917888641357,
        -9.82009506225586,
        0.8739985227584839,
        0.6696705222129822,
        0.03204195573925972,
        0.3063998222351074,
        0.30667784810066223,
        -0.5585834980010986,
        -0.08816244453191757,
        0.3743160367012024,
        -0.6319032907485962,
        0.3957466185092926,
        0.14709226787090302,
        -0.0026145055890083313,
        0.1375955492258072,
        0.16343273222446442,
        -0.20041869580745697,
        0.016924720257520676,
        -0.0007969788275659084,
        0.0034921825863420963,
        -0.0165569968521595,
        -4.238114833831787,
        2.8688719272613525,
        1.9555723667144775,
        -7.689711570739746,
        0.05407841131091118,
        -0.5052251815795898,
        -0.1570863276720047,
        -0.13692547380924225,
        -0.08689964562654495,
        0.10002189874649048,
        -0.1414443403482437,
        0.09203406423330307,
        -0.0025697958189994097,
        0.3929646611213684,
        0.03691171109676361,
        -0.09140274673700333,
        1.0966490507125854,
        -0.48323601484298706,
        -0.01603563502430916,
        0.054206471890211105,
        0.03310684859752655,
        0.01555907167494297,
        0.1383984386920929,
        -5.904429912567139,
        -6.792339324951172,
        -0.1422910839319229,
        -0.20132353901863098,
        0.03718825802206993,
        -0.10882986336946487,
        0.002427272731438279,
        0.2526465356349945,
        0.10548511892557144,
        0.02761870250105858,
        0.1395331472158432,
        0.00025058211758732796,
        0.4662989675998688,
        -0.04063479229807854,
        -0.02930348552763462,
        0.6546996831893921,
        1.3681279420852661,
        -0.11146031320095062,
        0.2128911316394806,
        0.07669533789157867,
        -0.365281879901886,
        -0.49413079023361206,
        0.28912222385406494,
        2.296910047531128,
        -1.420857310295105,
        -1.5609378814697266,
        0.012638847343623638,
        -0.10755922645330429,
        -0.025192100554704666,
        -0.08402764052152634,
        -0.1851487010717392,
        -0.2654349207878113,
        0.4369499981403351,
        -0.1255076676607132,
        -0.15986095368862152,
        -0.1972656548023224,
        -0.037792373448610306,
        0.6397980451583862,
        -0.6827013492584229,
        0.0007273450610227883,
        0.03353937715291977,
        0.035372812300920486,
        -0.038331687450408936,
        0.005671005230396986,
        -2.1624650955200195,
        -3.1769297122955322,
        -15.046689987182617,
        -3.03132963180542,
        0.01902475394308567,
        0.22254008054733276,
        -1.2168399095535278,
        0.14811764657497406,
        0.21646083891391754,
        0.1026734784245491,
        -1.2693806886672974,
        -0.210336834192276,
        -0.6860266327857971,
        0.01380406878888607,
        -0.5063136219978333,
        -0.022295916453003883,
        -0.0019870272371917963,
        0.039615947753190994,
        0.0258441474288702,
        -0.036166589707136154,
        -0.03845462203025818,
        0.02056252956390381,
        -0.08653606474399567,
        2.507744312286377,
        2.100656270980835,
        -1.2859410047531128,
        -0.15495221316814423,
        0.17483419179916382,
        -0.6671300530433655,
        -0.38902685046195984,
        -0.5199047923088074,
        0.4217129945755005,
        0.9504969120025635,
        -0.46782419085502625,
        0.5495187044143677,
        0.004889165051281452,
        0.09204715490341187,
        -0.09503073245286942,
        0.050755925476551056,
        0.09459574520587921,
        -0.0047699082642793655,
        0.03296111896634102,
        -0.005128713324666023,
        -8.142059326171875,
        -9.242600440979004,
        -9.088943481445312,
        1.8733726739883423,
        0.6251481771469116,
        -0.315678209066391,
        -0.3218677341938019,
        -0.2595975697040558,
        0.33588236570358276,
        0.07077236473560333,
        0.25094181299209595,
        0.3058914542198181,
        0.18798217177391052,
        0.5390081405639648,
        -9.807987225940451e-05,
        0.05850156024098396,
        0.020212598145008087,
        -0.1578007936477661,
        0.016006875783205032,
        -0.004445903934538364,
        -0.02002905309200287,
        -0.015149218030273914,
        -0.28929898142814636,
        -3.539499282836914,
        -3.9885313510894775,
        0.3711793124675751,
        0.0654912069439888,
        0.020321153104305267,
        -0.09869575500488281,
        0.009957538917660713,
        0.4666784703731537,
        0.27019453048706055,
        0.46487390995025635,
        0.0725104957818985,
        -0.14773283898830414,
        0.006491340696811676,
        -0.4489653408527374,
        -0.14868125319480896,
        0.0366506353020668,
        -0.038334064185619354,
        0.027452901005744934,
        -0.015343519859015942,
        -0.022477228194475174,
        -0.0003979948814958334,
        -11.765708923339844,
        -5.087949752807617,
        -0.3072037696838379,
        -0.01093593891710043,
        0.025460820645093918,
        -0.014366546645760536,
        0.16262321174144745,
        -0.255260705947876,
        -0.32698383927345276,
        0.4388747811317444,
        -0.5475991368293762,
        0.2354910522699356,
        -0.8527138233184814,
        0.6191166043281555,
        -0.001326116151176393,
        -0.569392204284668,
        -0.11983176320791245,
        -0.5833553671836853,
        -0.008452154695987701,
        0.03165239095687866,
        0.08110557496547699,
        -0.0017952072666957974,
        0.012429528869688511,
        6.138849258422852,
        5.41891622543335,
        0.5126575827598572,
        -0.21041882038116455,
        -0.7665327787399292,
        0.10158375650644302,
        -1.5206390619277954,
        -1.096714735031128,
        0.008225909434258938,
        -0.07290922850370407,
        0.3402796685695648,
        -0.02103678323328495,
        -0.43429550528526306,
        -0.025678297504782677,
        0.08468450605869293,
        -0.08771732449531555,
        0.07747534662485123,
        0.42826470732688904,
        -0.039879217743873596,
        0.33271852135658264,
        0.028018347918987274,
        0.1062052994966507,
        5.193438529968262,
        3.850935220718384,
        -1.7926552295684814,
        0.5990673303604126,
        0.24379181861877441,
        -0.8037084937095642,
        -2.3504221439361572,
        0.11260319501161575,
        -1.350334644317627,
        0.2317083775997162,
        -2.1038405895233154,
        0.16823884844779968,
        -1.7260557413101196,
        0.041445814073085785,
        0.018257470801472664,
        0.04519839584827423,
        0.3737574815750122,
        0.10186965018510818,
        0.25440481305122375,
        0.14587554335594177,
        -0.16669955849647522,
        -0.5726404786109924,
        -5.5070061683654785,
        -5.411471366882324,
        0.11844687163829803,
        -2.0172677040100098,
        -0.9163833856582642,
        -0.23001660406589508,
        -0.7155327200889587,
        0.12287929654121399,
        0.1729036569595337,
        0.061355285346508026,
        0.13044050335884094,
        0.07329465448856354,
        -0.3860624432563782,
        0.022848600521683693,
        -0.8789551258087158,
        0.07296177744865417,
        0.11241210252046585,
        -0.10188505053520203,
        0.10898684710264206,
        -0.12433425337076187,
        -0.16607461869716644,
        0.49528107047080994,
        0.7236114144325256,
        1.1368013620376587,
        -1.7282689809799194,
        -1.0425379276275635,
        -0.08468419313430786,
        -0.322581946849823,
        0.25271520018577576,
        0.5921902656555176,
        -0.10465501993894577,
        0.30117812752723694,
        0.17744672298431396,
        0.006197428330779076,
        0.12156239151954651,
        0.031914122402668,
        -1.1637134552001953,
        -0.11834914237260818,
        -0.7034517526626587,
        0.09740997850894928,
        -0.3233949542045593,
        -0.0038851650897413492,
        0.02588193491101265,
        -0.5831605792045593,
        -1.7661571502685547,
        -0.19809161126613617,
        -1.095123529434204,
        -0.011514466255903244,
        -0.5209848284721375,
        -0.5068247318267822,
        -0.8006471395492554,
        0.3328523635864258,
        0.4348422586917877,
        0.2589622139930725,
        -0.14193567633628845,
        0.12304680049419403,
        -2.113196849822998,
        -0.14111733436584473,
        0.1528814435005188,
        -1.0133392810821533,
        -0.8489232659339905,
        0.07047782838344574,
        0.46828994154930115,
        -0.012407018803060055,
        -0.111063152551651,
        -0.09716255962848663,
        0.4166199564933777,
        -0.0244922898709774,
        0.35809728503227234,
        -0.49948039650917053,
        0.03385789692401886,
        -0.0033265233505517244,
        1.2921758890151978,
        -1.457872748374939,
        -0.07345017045736313,
        -0.49981963634490967,
        0.2612076699733734,
        -0.16778582334518433,
        0.3848515748977661,
        -0.1533961445093155,
        0.16086451709270477,
        -0.7797712683677673,
        -0.6044127345085144,
        -0.4925345182418823,
        -0.05076868459582329,
        -0.5048105716705322,
        0.06438320875167847,
        -0.0197947658598423,
        0.14813585579395294,
        -1.6005845069885254,
        -1.8772941827774048,
        -0.28860798478126526,
        0.08031424134969711,
        0.3732069134712219,
        1.1218246221542358,
        -0.15562990307807922,
        -0.3926692605018616,
        -0.0005696461303159595,
        -0.22341370582580566,
        -0.2232600450515747,
        -0.565837025642395,
        -0.7647004723548889,
        -0.5704407691955566,
        0.4464736580848694,
        0.0030034114606678486,
        0.01129640731960535,
        0.1600627303123474,
        -0.046821486204862595,
        0.19822610914707184,
        0.1442519873380661,
        4.008418560028076,
        2.0976197719573975,
        -1.5595824718475342,
        0.1995977759361267,
        0.10458867996931076,
        0.04588909074664116,
        0.6579880714416504,
        -8.341198921203613,
        0.8182597756385803,
        -8.365385055541992,
        -0.8156812787055969,
        -2.206465482711792,
        0.25249001383781433,
        -1.881780743598938,
        -0.24125973880290985,
        -0.4003923535346985,
        -0.4487077295780182,
        0.04924926534295082,
        0.432868093252182,
        -0.03933454304933548,
        -0.05208292603492737,
        -0.19968466460704803,
        2.8945200443267822,
        2.5289459228515625,
        -1.1080348491668701,
        -0.18576687574386597,
        -0.0022436699364334345,
        0.10957631468772888,
        0.21272535622119904,
        -0.37861254811286926,
        -0.32017770409584045,
        -0.1866854876279831,
        0.25386887788772583,
        0.09214923530817032,
        -0.37953564524650574,
        -0.006158545613288879,
        -0.005248287692666054,
        1.9002928733825684,
        1.2977865934371948,
        0.04534048214554787,
        0.07132276147603989,
        0.1336854249238968,
        0.00984747614711523,
        0.07274475693702698,
        -1.238670825958252,
        -3.0744435787200928,
        1.0948983430862427,
        0.19608202576637268,
        0.006282714661210775,
        -0.5076677203178406,
        -0.12393496930599213,
        -0.40136614441871643,
        -0.7899696230888367,
        -0.3425233066082001,
        -0.5370131731033325,
        -0.4028051793575287,
        0.9105940461158752,
        0.001877344911918044,
        -0.3112998902797699,
        0.4690561294555664,
        -0.01565481722354889,
        0.039149537682533264,
        -0.22519585490226746,
        -0.03105282038450241,
        0.21579226851463318,
        -2.0342705249786377,
        2.0060055255889893,
        -0.9806370139122009,
        -1.2634923458099365,
        1.6391738653182983,
        -0.035098250955343246,
        0.31847140192985535,
        -0.661763608455658,
        0.4664151966571808,
        -0.45386451482772827,
        -0.3250923454761505,
        -0.10826373100280762,
        -0.3225022256374359,
        0.6433667540550232,
        -0.19796833395957947,
        -2.3720881938934326,
        0.7568340301513672,
        0.3586816191673279,
        -0.03896854817867279,
        0.21208156645298004,
        -0.07371268421411514,
        0.13307321071624756,
        -4.369488716125488,
        -1.2413526773452759,
        0.08146125078201294,
        0.15479351580142975,
        0.3418051600456238,
        0.06551438570022583,
        -0.10958582162857056,
        0.036553096026182175,
        0.19874466955661774,
        0.41728803515434265,
        0.20001018047332764,
        -0.1380200833082199,
        -0.1371684968471527,
        -0.39498159289360046,
        -0.016038086265325546,
        0.10737930983304977,
        0.440155029296875,
        -0.1367933601140976,
        -0.06511469185352325,
        0.005234286189079285,
        0.03296095132827759,
        -0.03672097250819206,
        -0.07781621068716049,
        3.966588258743286,
        4.04470157623291,
        -0.6535166501998901,
        0.6257089972496033,
        0.15158356726169586,
        -1.5910272598266602,
        0.13718655705451965,
        -0.07039006054401398,
        0.7597614526748657,
        -0.047034915536642075,
        0.06386726349592209,
        -0.4945378005504608,
        -0.030167724937200546,
        0.11284343153238297,
        0.3048418462276459,
        0.8663609027862549,
        0.5727539658546448,
        -0.2714415192604065,
        0.019353529438376427,
        -0.2269454449415207,
        -0.009305612184107304,
        -1.468791127204895,
        -1.916780948638916,
        -5.21065092086792,
        -5.082949638366699,
        -0.010248303413391113,
        -0.385146826505661,
        0.07363205403089523,
        0.7388766407966614,
        0.06588349491357803,
        -0.8416054248809814,
        0.20336395502090454,
        -0.7938687205314636,
        0.08151567727327347,
        0.9434117674827576,
        -0.3243478834629059,
        -0.24429461359977722,
        -0.22867031395435333,
        -0.18342481553554535,
        -0.01748252660036087,
        -0.5102111101150513,
        -0.022830871865153313,
        0.7507508993148804,
        -1.211823582649231,
        -3.3127195835113525,
        -3.3356287479400635,
        0.5451810359954834,
        -0.551508903503418,
        0.08702144026756287,
        -0.47421762347221375,
        0.2320699691772461,
        -0.16169874370098114,
        -0.049652207642793655,
        -0.17300981283187866,
        0.1465529203414917,
        -0.34989431500434875,
        0.189817875623703,
        0.0023096336517482996,
        0.03175867348909378,
        0.12365391105413437,
        -0.2477990835905075,
        -0.04255154728889465,
        0.01499104406684637,
        0.0646074116230011,
        -0.0252228956669569,
        -1.6162163019180298,
        4.565010070800781,
        4.852930068969727,
        -1.5541181564331055,
        0.25805169343948364,
        -0.8746368885040283,
        0.1874319165945053,
        -0.07715572416782379,
        -0.2959481179714203,
        0.25335073471069336,
        0.11129400134086609,
        -0.39482760429382324,
        -0.39361196756362915,
        1.1776255369186401,
        -0.014157734811306,
        0.08345398306846619,
        -2.9856271743774414,
        -3.756305694580078,
        -0.02233094535768032,
        0.048568252474069595,
        0.019169410690665245,
        -0.21018607914447784,
        -0.22025205194950104,
        -0.2690446376800537,
        -1.1752997636795044,
        0.15797582268714905,
        0.07568694651126862,
        -7.702353477478027,
        0.761361300945282,
        0.6272603869438171,
        -3.763512134552002,
        0.4369223415851593,
        -3.879634141921997,
        -0.3805604577064514,
        -1.985399842262268,
        -1.004582166671753,
        -1.8530603647232056,
        -0.047842781990766525,
        -0.0708497166633606,
        0.02962169237434864,
        -0.09885316342115402,
        0.1016615778207779,
        -0.10224290937185287,
        -0.1127726137638092,
        -4.779678821563721,
        -2.437408208847046,
        -1.8921860456466675,
        1.121707797050476,
        -5.445585250854492,
        -0.09443987905979156,
        -0.09313057363033295,
        -0.5498561263084412,
        0.6855782866477966,
        0.10049358010292053,
        -0.4242768883705139,
        0.28253981471061707,
        -0.22494721412658691,
        0.507534384727478,
        -0.017425067722797394,
        -0.722368597984314,
        -0.10856553167104721,
        0.1504800021648407,
        -0.009069760330021381,
        0.010560158640146255,
        -0.1292756348848343,
        -0.09111679345369339,
        0.16193710267543793,
        3.1728169918060303,
        7.298917770385742,
        -0.023638060316443443,
        -4.709906101226807,
        -0.2492728978395462,
        0.07996261864900589,
        0.24319258332252502,
        -0.14488308131694794,
        -0.16540910303592682,
        -0.06128395348787308,
        0.07741151005029678,
        0.0621253103017807,
        -0.12659741938114166,
        0.008595644496381283,
        -0.004935267381370068,
        0.3571479022502899,
        1.005391001701355,
        0.01563183218240738,
        -0.17412574589252472,
        -0.0346258208155632,
        0.5150190591812134,
        -0.0044850315898656845,
        2.630422353744507,
        2.1706490516662598,
        0.24352224171161652,
        0.28184983134269714,
        0.18616212904453278,
        -0.1440206617116928,
        -1.3194831609725952,
        -1.4820375442504883,
        0.5316390991210938,
        -2.2558045387268066,
        -0.12128528952598572,
        -1.1596699953079224,
        0.2430255115032196,
        -0.18651361763477325,
        -0.07030254602432251,
        0.3783772587776184,
        -0.0038496465422213078,
        0.12375030666589737,
        -0.1278235763311386,
        0.027918506413698196,
        0.1943398267030716,
        0.012902987189590931,
        -2.0168185234069824,
        -1.6607848405838013,
        -0.4317677319049835,
        -1.3285044431686401,
        -0.6847879886627197,
        -0.6109811067581177,
        -0.48583170771598816,
        -0.5450090169906616,
        0.3165225386619568,
        -1.0480132102966309,
        0.579221248626709,
        0.11675375699996948,
        0.1617065966129303,
        0.14396932721138,
        0.035748522728681564,
        0.09100703150033951,
        0.054763536900281906,
        -0.04781503602862358,
        0.06940307468175888,
        -0.10093806684017181,
        -0.08272100239992142,
        -0.4917924106121063,
        -10.295018196105957,
        -8.892073631286621,
        3.0337417125701904,
        -0.2837677001953125,
        -0.03460612893104553,
        -0.09747382253408432,
        -0.5983231067657471,
        0.28017687797546387,
        0.4796634912490845,
        0.12442472577095032,
        -0.27285319566726685,
        -0.06356776505708694,
        0.09643330425024033,
        -0.01715935580432415,
        -0.704151451587677,
        -2.2338552474975586,
        -1.585720181465149,
        0.05997167155146599,
        0.14940696954727173,
        -0.0321410596370697,
        -0.39273473620414734,
        -0.014173575676977634,
        -2.496110200881958,
        -3.101223945617676,
        0.03418174758553505,
        -0.27436161041259766,
        0.07058659940958023,
        -0.05258382111787796,
        0.9437256455421448,
        -0.6789466738700867,
        -0.07428466528654099,
        -1.003183364868164,
        -0.008845041505992413,
        -0.47795552015304565,
        0.5257778167724609,
        -0.1656397134065628,
        -0.12049448490142822,
        0.8013303875923157,
        0.8254892826080322,
        0.04456986486911774,
        -0.6029855608940125,
        0.03152034804224968,
        0.37914979457855225,
        -0.018719404935836792,
        -0.9526448845863342,
        -0.6335917711257935,
        0.38602298498153687,
        0.20831100642681122,
        -0.04395444691181183,
        0.11941605061292648,
        0.35973843932151794,
        -0.9024813175201416,
        -0.12565183639526367,
        -0.5263490080833435,
        0.004195899236947298,
        -0.44997480511665344,
        0.7511692047119141,
        -0.07074249535799026,
        0.1371045708656311,
        -0.2779722809791565,
        -0.4338342547416687,
        0.067744180560112,
        -0.028486330062150955,
        -0.050575271248817444,
        0.0007476798491552472,
        0.042808447033166885,
        6.086277484893799,
        6.041040420532227,
        -6.5875468254089355,
        -0.8894554376602173,
        -0.01822526566684246,
        -0.2186613529920578,
        -0.05787283182144165,
        -0.03365909308195114,
        -0.016319049522280693,
        -0.06916068494319916,
        0.12469493597745895,
        0.19254714250564575,
        0.4454556107521057,
        -0.004672069568186998,
        -0.029004842042922974,
        -0.9068055152893066,
        -0.0548744834959507,
        0.057437438517808914,
        -0.01973191276192665,
        -0.08104006201028824,
        -0.031131071969866753,
        0.012038985267281532,
        -6.1702704429626465,
        -6.812991142272949,
        0.37438908219337463,
        -0.17391455173492432,
        -0.022048169746994972,
        -0.172732874751091,
        0.2696196138858795,
        0.18969686329364777,
        0.1337495595216751,
        0.044085316359996796,
        -0.013657527975738049,
        0.11049170047044754,
        -0.14680048823356628,
        0.058897409588098526,
        0.045082446187734604,
        -1.228988766670227,
        -0.3104894459247589,
        0.011934977024793625,
        -0.019371414557099342,
        0.01601024717092514,
        0.039063964039087296,
        -5.733936786651611,
        -9.719746589660645,
        -12.300252914428711,
        0.7223789691925049,
        -0.7721205949783325,
        0.02172154001891613,
        -0.05757617950439453,
        -0.7369825839996338,
        -0.05411532521247864,
        0.3854275047779083,
        0.17894980311393738,
        -0.12758393585681915,
        -0.17345677316188812,
        0.31919825077056885,
        -0.0013699955306947231,
        -0.044384345412254333,
        0.31891798973083496,
        0.36154645681381226,
        0.08477049320936203,
        0.08471624553203583,
        0.09342779219150543,
        -0.06757482886314392,
        0.01602247543632984,
        0.8165432810783386,
        1.1738576889038086,
        -1.5543862581253052,
        -0.9580955505371094,
        0.0966935083270073,
        -0.9252257943153381,
        1.2423968315124512,
        -0.031924448907375336,
        -0.6836835145950317,
        0.1083034798502922,
        -0.22814194858074188,
        -0.48655277490615845,
        1.2576053142547607,
        -0.1188289150595665,
        0.09832580387592316,
        -0.0493338443338871,
        0.16927699744701385,
        0.00038773956475779414,
        0.0006491505191661417,
        -0.01994536817073822,
        0.0005381106748245656,
        -8.649182319641113,
        -7.862929821014404,
        -6.357487678527832,
        1.245190143585205,
        -0.7632595896720886,
        -0.6937994956970215,
        -0.07556166499853134,
        -0.589124321937561,
        0.04884369671344757,
        0.3335544168949127,
        0.19850213825702667,
        0.02623816765844822,
        -0.021259725093841553,
        -0.15554021298885345,
        -0.010872299782931805,
        -3.1338586807250977,
        0.1725165694952011,
        -0.1834116131067276,
        0.034147292375564575,
        -0.0043237884528934956,
        0.07860803604125977,
        0.29881739616394043,
        0.2231082320213318,
        4.102325916290283,
        4.630124568939209,
        -0.47577473521232605,
        -1.1636296510696411,
        -0.019506309181451797,
        -1.4692045450210571,
        0.0009667736594565213,
        0.1866956502199173,
        -2.337695598602295,
        0.33322498202323914,
        0.45533132553100586,
        0.3184649348258972,
        -0.6876571774482727,
        -0.00830275472253561,
        -0.05567562207579613,
        -1.4932975769042969,
        -0.8178116083145142,
        0.05292193591594696,
        0.21188709139823914,
        0.011068388819694519,
        -0.039754718542099,
        -0.04443686082959175,
        -0.5697981119155884,
        0.24138428270816803,
        0.5546353459358215,
        0.6396979093551636,
        0.0859992653131485,
        0.2006346434354782,
        1.314690113067627,
        -0.49978867173194885,
        -0.24762409925460815,
        -0.4248533546924591,
        0.025352098047733307,
        -0.6969180703163147,
        1.3072577714920044,
        -0.16529789566993713,
        -0.6877926588058472,
        -0.68487548828125,
        -0.6786999106407166,
        0.4247235059738159,
        0.14714889228343964,
        0.48228901624679565,
        -0.1154792308807373,
        0.008063736371695995,
        3.1147444248199463,
        1.160201072692871,
        0.3148980736732483,
        0.5240156054496765,
        2.3371663701254874e-05,
        0.6094657778739929,
        0.710400402545929,
        -1.0346746444702148,
        0.33731916546821594,
        -0.9655012488365173,
        -0.46022409200668335,
        -0.6284662485122681,
        -1.8203601837158203,
        -2.222449541091919,
        -0.01985187456011772,
        -0.8753576278686523,
        -1.484554648399353,
        -0.051209937781095505,
        0.004826187621802092,
        -0.05015106871724129,
        -0.05388418957591057,
        -0.6120012998580933,
        -1.3612453937530518,
        -1.4884741306304932,
        -0.13013799488544464,
        -0.31763049960136414,
        0.11328985542058945,
        -0.13400772213935852,
        0.019201191142201424,
        -0.4245946705341339,
        -0.22713693976402283,
        -0.40456128120422363,
        0.22553767263889313,
        -0.15303491055965424,
        0.24853774905204773,
        -0.012998576276004314,
        -0.00363699602894485,
        0.03121020831167698,
        -0.03631046786904335,
        0.05136729031801224,
        -0.0005536467651836574,
        -0.037137653678655624,
        4.730852127075195,
        0.004835315980017185,
        -0.8925954699516296,
        2.442882776260376,
        -0.7834146022796631,
        -1.680587887763977,
        0.0054505509324371815,
        -0.008058279752731323,
        -0.03211617469787598,
        0.035885781049728394,
        0.005428561475127935,
        -0.039434764534235,
        -0.005345629528164864,
        -0.027520693838596344,
        0.02697298489511013,
        -0.0005713337450288236,
        0.28600239753723145,
        -0.25168824195861816,
        0.16742093861103058,
        0.03274908289313316,
        0.007764716632664204,
        -0.052232205867767334,
        -0.0021614874713122845,
        -5.133001327514648,
        -7.013764381408691,
        -1.657757043838501,
        -0.018346622586250305,
        0.009420999325811863,
        -0.11003373563289642,
        0.22133691608905792,
        -0.4204641878604889,
        -1.7060706615447998,
        0.45352527499198914,
        -1.6915926933288574,
        0.2295878380537033,
        -0.36854270100593567,
        -0.07993484288454056,
        -0.26105502247810364,
        -1.2069388628005981,
        0.26119667291641235,
        -0.13195182383060455,
        -0.012646769173443317,
        0.003951181657612324,
        0.007870888337492943,
        -0.028856059536337852,
        -7.558338642120361,
        -8.647254943847656,
        -5.948281288146973,
        0.20951886475086212,
        0.25211402773857117,
        0.05277528986334801,
        -0.0003469160874374211,
        1.1257884502410889,
        0.025091620162129402,
        0.7639068365097046,
        0.10909055173397064,
        -0.5403681397438049,
        -0.44001418352127075,
        -0.024016598239541054,
        0.00321176927536726,
        -0.030768411234021187,
        0.07021757960319519,
        -0.1587219536304474,
        0.00483504356816411,
        -0.021666722372174263,
        0.09462945908308029,
        -0.0006918821018189192,
        0.05553283542394638,
        -8.144515991210938,
        -4.715099334716797,
        3.6062231063842773,
        -1.4655275344848633,
        -0.018678443506360054,
        -0.10575897991657257,
        0.0798615962266922,
        0.16644814610481262,
        -0.21763376891613007,
        0.2916896641254425,
        0.20549239218235016,
        0.25170058012008667,
        -0.08127076923847198,
        -0.05491142347455025,
        0.0950533077120781,
        0.7376298904418945,
        0.8839443325996399,
        0.049288779497146606,
        -0.013470310717821121,
        -0.05373308062553406,
        -0.04046660289168358,
        -1.579756736755371,
        -0.03792959451675415,
        1.787988305091858,
        -7.122180938720703,
        -0.6993296146392822,
        -0.08607935160398483,
        -0.43283766508102417,
        -0.3479745090007782,
        -0.09809940308332443,
        0.3983183801174164,
        -0.38032886385917664,
        0.21552634239196777,
        0.33168089389801025,
        -0.23247919976711273,
        0.0009903809987008572,
        0.008644908666610718,
        0.017347343266010284,
        0.017689432948827744,
        0.029646528884768486,
        0.01648731343448162,
        -0.024958884343504906,
        -0.019824666902422905,
        -0.08737590163946152,
        -2.0258870124816895,
        -2.311758041381836,
        -0.06535328924655914,
        -0.0662526860833168,
        -0.0767301693558693,
        -0.07847218960523605,
        -0.15114042162895203,
        -0.09661576896905899,
        -0.0533454529941082,
        -0.12418605387210846,
        -0.009408054873347282,
        -0.05061200261116028,
        0.060717903077602386,
        -0.057803381234407425,
        0.1808592826128006,
        -1.6979933977127075,
        -1.9568748474121094,
        -0.01994474045932293,
        0.03839559853076935,
        0.02830614149570465,
        -0.1680556833744049,
        0.12621642649173737,
        -3.412926197052002,
        -3.752617120742798,
        -3.050809621810913,
        0.02974274754524231,
        -8.671557426452637,
        0.1154409795999527,
        -2.8492391109466553,
        -0.2447940558195114,
        0.4316529929637909,
        0.11013562977313995,
        0.1605720818042755,
        -0.08898267894983292,
        -3.9438161849975586,
        -2.1868064403533936,
        0.12596015632152557,
        -1.0532172918319702,
        -0.8724706172943115,
        0.06722749024629593,
        -0.16637079417705536,
        0.156685009598732,
        0.14017939567565918,
        -3.7909276485443115,
        -0.6466555595397949,
        0.16353768110275269,
        -3.0502781867980957,
        -1.7366873025894165,
        -0.15836693346500397,
        -0.25149857997894287,
        0.8311989903450012,
        0.034434765577316284,
        -0.751375675201416,
        0.31637972593307495,
        0.2678806483745575,
        -0.01206138078123331,
        0.6854667067527771,
        -0.49882960319519043,
        -0.08061251044273376,
        -0.1610892415046692,
        0.0038230607751756907,
        -0.0008351588621735573,
        0.025751512497663498,
        -0.006218068767338991,
        -0.04521266743540764,
        0.2783513367176056,
        9.716666221618652,
        6.625882625579834,
        -8.262788772583008,
        -1.1996208429336548,
        0.11898502707481384,
        -0.37000030279159546,
        -0.03278503566980362,
        0.14153741300106049,
        0.12119753658771515,
        0.09083017706871033,
        0.03164241835474968,
        0.07883013039827347,
        0.5044896602630615,
        -0.0020531839691102505,
        -0.6710987091064453,
        0.11833053827285767,
        -0.09379269182682037,
        -0.03662287816405296,
        -0.0026166182942688465,
        0.05949307233095169,
        0.03084380365908146,
        0.350968599319458,
        1.4598056077957153,
        3.0340359210968018,
        0.7303702235221863,
        -1.4425368309020996,
        -0.01729404181241989,
        -0.16584475338459015,
        -1.259140133857727,
        0.11066107451915741,
        0.1303938627243042,
        -0.1302105039358139,
        0.2151831090450287,
        0.23078325390815735,
        -0.3407924473285675,
        -0.26872339844703674,
        -0.2773281931877136,
        -0.16993413865566254,
        0.08583439886569977,
        0.021476132795214653,
        -0.013158499263226986,
        -0.06561419367790222,
        -0.027263563126325607,
        -0.2924139201641083,
        -1.1740163564682007,
        -2.771951198577881,
        -3.002742052078247,
        0.3175921142101288,
        -7.34301793272607e-05,
        0.3109613358974457,
        0.7173742055892944,
        0.9777209758758545,
        -0.06472989916801453,
        -0.886663556098938,
        -0.44703811407089233,
        -0.715237557888031,
        0.185182586312294,
        0.019926482811570168,
        0.0009550608228892088,
        0.011265200562775135,
        -0.016358990222215652,
        7.057055473327637,
        -0.0023920137900859118,
        4.056217193603516,
        0.018773159012198448,
        -0.003704322502017021,
        0.5726242661476135,
        -0.614201545715332,
        -4.847002983093262,
        -0.1720542311668396,
        -0.0051541575230658054,
        0.0019535382743924856,
        0.054763421416282654,
        0.010943870060145855,
        -0.05364210531115532,
        -0.0866987481713295,
        0.03737112879753113,
        0.06281401216983795,
        -0.08074529469013214,
        0.0007147901342250407,
        -0.14922845363616943,
        -0.012511697597801685,
        0.04065932705998421,
        0.010853921994566917,
        -0.001006617327220738,
        0.03919915109872818,
        0.08492269366979599,
        0.2824142277240753,
        0.25398510694503784,
        0.8375968337059021,
        0.2050260305404663,
        -0.023668812587857246,
        -0.016704201698303223,
        0.03064185194671154,
        -0.012966807931661606,
        0.6869685053825378,
        -2.140096426010132,
        0.3289385139942169,
        -0.06049232557415962,
        -0.29004424810409546,
        -0.030649641528725624,
        -0.0007252060458995402,
        -0.663415789604187,
        -0.6803629398345947,
        -0.0016350263031199574,
        -0.05153769999742508,
        -0.011250987648963928,
        0.029633577913045883,
        0.01704387739300728,
        0.21176677942276,
        -1.9915621280670166,
        -4.465590000152588,
        4.610830307006836,
        0.16687284409999847,
        -0.2191603034734726,
        0.13140952587127686,
        0.39584052562713623,
        -0.3231325149536133,
        -0.09642734378576279,
        -0.17463001608848572,
        -0.22665376961231232,
        0.11740254610776901,
        0.7269281148910522,
        -0.30887845158576965,
        -0.07492385804653168,
        -0.20740698277950287,
        0.39364179968833923,
        -0.005588522180914879,
        -0.01442331075668335,
        0.020577087998390198,
        -0.020051361992955208,
        0.00984872505068779,
        4.021694183349609,
        6.475074768066406,
        2.472255229949951,
        -2.830315589904785,
        -0.3138587772846222,
        0.013060430996119976,
        -0.229433074593544,
        0.09465110301971436,
        0.13913187384605408,
        -0.38055741786956787,
        -0.07991626113653183,
        -0.12934473156929016,
        0.08189095556735992,
        -0.011959381401538849,
        0.0861431136727333,
        0.4908679127693176,
        -0.34061869978904724,
        0.026722775772213936,
        0.015745067968964577,
        -0.04419878125190735,
        -0.008596696890890598,
        -0.7098678946495056,
        -9.256770133972168,
        -10.282122611999512,
        0.14141595363616943,
        0.07653534412384033,
        -0.06053337827324867,
        0.012638253159821033,
        -0.23013977706432343,
        -0.2725839912891388,
        0.06222229078412056,
        -0.19668534398078918,
        0.03540610522031784,
        -0.30068904161453247,
        0.32011401653289795,
        0.22567841410636902,
        -0.415453165769577,
        0.05205992981791496,
        -0.1025204136967659,
        0.015625618398189545,
        0.00865268800407648,
        -0.014102412387728691,
        -0.0011577652767300606,
        -10.690320014953613,
        7.078183650970459,
        6.026721477508545,
        -1.4489887952804565,
        0.14930236339569092,
        0.09558970481157303,
        -0.06951849907636642,
        0.5994094014167786,
        -0.3645859658718109,
        0.05608179420232773,
        -0.02709946036338806,
        0.07399014383554459,
        0.13513576984405518,
        0.13596990704536438,
        0.020070550963282585,
        0.012869961559772491,
        -2.032041072845459,
        -1.4158531427383423,
        -0.012939009815454483,
        -0.06064508855342865,
        -0.006706684362143278,
        0.09143652766942978,
        0.09893029183149338,
        5.141258716583252,
        2.8410089015960693,
        -1.3289319276809692,
        -0.024416523054242134,
        0.017010457813739777,
        0.027916116639971733,
        -0.6519478559494019,
        -1.107427954673767,
        0.023228522390127182,
        -1.0850932598114014,
        -0.17654818296432495,
        -0.04525350034236908,
        -0.2680208086967468,
        0.05442924425005913,
        -2.581451654434204,
        0.07483147084712982,
        0.2676522731781006,
        0.5173647403717041,
        0.13701166212558746,
        0.34706196188926697,
        -0.2570186257362366,
        -0.6985676288604736,
        2.6473782062530518,
        3.0149264335632324,
        -1.152811050415039,
        0.46004757285118103,
        -0.20956648886203766,
        -1.5425331592559814,
        -1.0728996992111206,
        -1.1250025033950806,
        -0.11409887671470642,
        -0.5657293200492859,
        0.31096649169921875,
        -0.2243671715259552,
        -5.762690544128418,
        -0.11054173856973648,
        0.15683335065841675,
        0.4997880756855011,
        0.5726508498191833,
        -0.033958155661821365,
        0.5644667148590088,
        0.012602405622601509,
        -0.45524829626083374,
        -0.7064865231513977,
        -5.679512023925781,
        -6.671919345855713,
        -0.13924787938594818,
        0.1455097198486328,
        -0.028991205617785454,
        0.23376578092575073,
        -1.81629478931427,
        -0.15078848600387573,
        -0.009571426548063755,
        -0.2448567897081375,
        -0.29686030745506287,
        0.2152816355228424,
        -2.5117740631103516,
        -0.8451793193817139,
        -0.6065627336502075,
        1.3367594480514526,
        0.34235966205596924,
        0.03658635914325714,
        0.07060867547988892,
        -0.015143358148634434,
        0.16695722937583923,
        0.05240938067436218,
        -1.0154674053192139,
        -1.073957920074463,
        0.12809453904628754,
        0.6172766089439392,
        -0.27124443650245667,
        0.5570868849754333,
        2.008319616317749,
        0.5884576439857483,
        -0.3227519989013672,
        -1.3502365350723267,
        -0.3554380238056183,
        -1.2794264554977417,
        -0.1284182071685791,
        -0.28365471959114075,
        0.12287049740552902,
        0.3407733738422394,
        0.0060503059066832066,
        -0.10254049301147461,
        -0.14814181625843048,
        0.05149989575147629,
        -0.04599464312195778,
        0.05296908691525459,
        1.5080732107162476,
        0.7375888824462891,
        0.9648385643959045,
        1.6902307271957397,
        0.055368080735206604,
        -3.5840680599212646,
        0.1973361223936081,
        -0.05200299620628357,
        -0.5196918845176697,
        0.11465125530958176,
        0.9484495520591736,
        -0.07147898524999619,
        0.20455282926559448,
        -0.05976288393139839,
        -0.42966896295547485,
        2.234593152999878,
        0.5870105624198914,
        -0.007975646294653416,
        0.053644683212041855,
        0.033516302704811096,
        -0.07047301530838013,
        -2.4045751094818115,
        -0.6970080137252808,
        -6.480678081512451,
        -1.3688247203826904,
        -0.12226314842700958,
        0.013227419927716255,
        0.06963415443897247,
        0.16942796111106873,
        -0.28148961067199707,
        0.21571531891822815,
        -0.13514257967472076,
        -0.0874689370393753,
        -0.23750121891498566,
        0.04923690855503082,
        0.004541852045804262,
        0.10173558443784714,
        -0.6207218766212463,
        -1.2915661334991455,
        0.08686015754938126,
        0.2256081998348236,
        0.12037918716669083,
        -0.27162396907806396,
        0.062082234770059586,
        -0.673596203327179,
        0.41159358620643616,
        1.13773512840271,
        0.09248097985982895,
        -0.0768674984574318,
        -0.23791171610355377,
        -0.7572981119155884,
        0.027890069410204887,
        -0.04958431422710419,
        0.06591260433197021,
        -0.24455448985099792,
        -0.026048952713608742,
        -1.0613510608673096,
        -0.11625953018665314,
        -0.5224831700325012,
        0.08305656909942627,
        -0.16368524730205536,
        0.11346135288476944,
        0.011977314949035645,
        -0.050229351967573166,
        -0.05781994387507439,
        -0.013128302060067654,
        -7.747297763824463,
        -7.953732013702393,
        1.0277800559997559,
        0.4150671064853668,
        0.03893708065152168,
        -0.05435330048203468,
        0.5529087781906128,
        0.13426640629768372,
        0.11548496037721634,
        0.9232586622238159,
        0.4238123297691345,
        -0.751868486404419,
        0.5964820384979248,
        -0.014245790429413319,
        -0.1597512662410736,
        -0.16032864153385162,
        0.3046815097332001,
        0.009936703369021416,
        -0.2309092879295349,
        0.02994852513074875,
        0.1460772603750229,
        0.0770609974861145,
        0.6512636542320251,
        0.4426615834236145,
        -7.35799503326416,
        -0.983920156955719,
        -0.8579626679420471,
        -0.09623786807060242,
        0.9669190645217896,
        -0.1831045150756836,
        -0.8620647192001343,
        -0.04169382527470589,
        0.5290957689285278,
        -0.5155209898948669,
        1.4725840091705322,
        0.1858050376176834,
        0.0669114887714386,
        -0.03844873607158661,
        0.0228913314640522,
        -0.09896672517061234,
        -0.006916062906384468,
        -0.157064750790596,
        0.027698423713445663,
        -0.0573681965470314,
        1.8907769918441772,
        1.0490190982818604,
        -5.079912185668945,
        -1.3997828960418701,
        -0.1982463300228119,
        -0.4589534401893616,
        -0.2897615134716034,
        -0.032726071774959564,
        -0.5177187323570251,
        -0.04610605165362358,
        0.43289393186569214,
        -0.07251302897930145,
        -0.9355580806732178,
        0.22134822607040405,
        0.22290067374706268,
        -0.027795521542429924,
        0.019108256325125694,
        0.002345656044781208,
        0.006253201514482498,
        0.03072953224182129,
        -0.00980992428958416,
        -14.319108009338379,
        2.1999449729919434,
        1.11142897605896,
        -1.630951166152954,
        0.42555001378059387,
        0.005006743595004082,
        -0.2754002511501312,
        -0.154434472322464,
        0.09030307829380035,
        -0.08022428303956985,
        0.08999665081501007,
        0.11857733875513077,
        0.03811211511492729,
        -0.1619565784931183,
        0.003351012244820595,
        -1.3258860111236572,
        -1.8847953081130981,
        -0.6577221751213074,
        -0.008778094314038754,
        -0.014473795890808105,
        0.04879157990217209,
        -0.018923362717032433,
        -3.809612274169922,
        0.017335355281829834,
        -5.187937259674072,
        -0.7109203934669495,
        0.9166948199272156,
        -1.7493964433670044,
        0.27678754925727844,
        0.965684175491333,
        -0.4790852665901184,
        -0.295414537191391,
        -0.37117868661880493,
        -0.23516713082790375,
        -0.004937778227031231,
        -0.5268062949180603,
        0.0060563767328858376,
        0.1001124233007431,
        -0.07789118587970734,
        0.18371599912643433,
        0.04366692155599594,
        -0.015438493341207504,
        -0.014536645263433456,
        0.01052361261099577,
        0.028115952387452126,
        4.2614521980285645,
        2.2642264366149902,
        -0.4141105115413666,
        0.35083746910095215,
        0.17608009278774261,
        0.012731587514281273,
        0.10547275841236115,
        -0.4623652994632721,
        0.05538468807935715,
        0.0530269630253315,
        0.45872196555137634,
        0.17417798936367035,
        0.44321179389953613,
        -0.527318000793457,
        0.21278850734233856,
        0.030600542202591896,
        -0.10673268139362335,
        0.028008535504341125,
        0.0007729592034593225,
        5.347687692847103e-05,
        0.05908745899796486,
        -4.36112117767334,
        4.526816368103027,
        4.155922889709473,
        -7.595549583435059,
        -2.9961354732513428,
        0.019856499508023262,
        0.08008920401334763,
        -0.366332471370697,
        0.032814837992191315,
        -0.21666179597377777,
        0.031834207475185394,
        0.12392251193523407,
        -0.12259110808372498,
        0.42404648661613464,
        0.01007436029613018,
        -1.5394542217254639,
        -0.15229129791259766,
        0.16398239135742188,
        -0.0392821840941906,
        0.013628792949020863,
        0.027245184406638145,
        -0.006132996175438166,
        -2.1012892723083496,
        -5.582473278045654,
        -5.10555362701416,
        0.18235328793525696,
        -2.845723867416382,
        0.03460932895541191,
        -0.08411581069231033,
        -0.022079162299633026,
        -0.41158562898635864,
        0.4133361876010895,
        -0.7096790671348572,
        0.1955919861793518,
        0.594913899898529,
        -0.43553560972213745,
        -0.009281798265874386,
        -2.8942434787750244,
        -0.02932296134531498,
        0.0024853255599737167,
        -0.01990836299955845,
        -0.0007825412321835756,
        0.04405158758163452,
        -0.005868508014827967,
        0.46687784790992737,
        9.069096565246582,
        9.620659828186035,
        0.10075842589139938,
        -0.06787663698196411,
        -0.04854767397046089,
        -0.05258583277463913,
        0.1496334969997406,
        -0.07104193419218063,
        0.04505151882767677,
        -0.03223627805709839,
        0.09341069310903549,
        0.2154415249824524,
        0.05181362107396126,
        0.002041366184130311,
        -0.40702545642852783,
        1.320702314376831,
        0.9945807456970215,
        0.11344380676746368,
        0.022600507363677025,
        -0.00979428831487894,
        -0.03536418825387955,
        0.2935275435447693,
        0.8848769664764404,
        -1.5533946752548218,
        0.801565945148468,
        0.2522884011268616,
        0.021045656874775887,
        -0.7812690138816833,
        -1.0381134748458862,
        -0.7275006771087646,
        -0.16856937110424042,
        -0.6966016292572021,
        0.27998489141464233,
        0.10599285364151001,
        0.26045721769332886,
        0.12634395062923431,
        -0.2881644368171692,
        0.0012793599162250757,
        -0.09684951603412628,
        -0.5627586245536804,
        0.04040248692035675,
        -0.6052007675170898,
        -0.1861446648836136,
        -0.07220688462257385,
        -3.6011290550231934,
        -1.5114524364471436,
        0.290626585483551,
        -0.8436750173568726,
        0.052774250507354736,
        -0.009982340969145298,
        -0.17087429761886597,
        0.3255559206008911,
        -0.13277196884155273,
        -0.002035517245531082,
        0.1882275640964508,
        -0.24724622070789337,
        0.44363343715667725,
        -0.0044462792575359344,
        -0.207302063703537,
        0.9438812732696533,
        0.5260007977485657,
        -0.0850166380405426,
        -0.286702036857605,
        0.00675553223118186,
        -0.4096814692020416,
        0.2791605591773987,
        3.9642128944396973,
        2.6902947425842285,
        0.6075685620307922,
        0.9460494518280029,
        -0.030624955892562866,
        -0.6787242889404297,
        -0.7025766372680664,
        -6.509931564331055,
        -0.3462839424610138,
        -6.448807239532471,
        -0.9333235025405884,
        -2.048158884048462,
        -0.9467828869819641,
        -1.9110649824142456,
        -0.05644975230097771,
        -0.054309502243995667,
        -0.055639736354351044,
        0.010341234505176544,
        0.007336269598454237,
        -0.006548823323100805,
        -0.0057235220447182655,
        -0.0193328857421875,
        -0.5299031734466553,
        -0.49801212549209595,
        0.0012069842778146267,
        -0.12448655068874359,
        -0.04837581515312195,
